/* MODEL CREATED AUTOMATICALLY BY notebooks/203-MicroGenerateModel.py, timestamp: 2024-02-09 15:54:45 */

int n_clusters = 6;
double centers[6][7] = { {1.8108158509578076, 1.9556486611405068, 1.7746522119245969, 1.869926200489684, 1.7616218450400274, 1.900351525472431, 1.8744780197572164}, {-0.4553255907043875, -0.7377850625525297, -0.9310050609413717, -0.8351573708436132, -0.8864815466712549, -0.7053936003610036, -0.7481798270453744}, {-0.769662558780765, -0.3590876342469013, 0.1754933675710988, -0.4970391709161655, 0.29273954203246555, -0.0618357288688905, 0.01669410287458104}, {-0.0448774097616893, -0.5078322896652844, -0.9478301963021362, -0.37427617973174804, -0.9313234669872115, -0.6902672055602206, -0.8076038047096329}, {0.7246834566372661, -0.058537256590013874, -0.9456577714421069, 0.37020533489315055, -0.9302150804356193, -0.6977725997690585, -0.7934984577478909}, {-0.7927894107936121, -0.5019546848757324, -0.07974334334947428, -0.3990622503676497, -0.24489802843341743, -0.4467797959200358, -0.35415096953904857} };
double stds[7] = {6.156211629107674, 197680660.7288814, 16705.187812382126, 538.4356714281122, 1163.3122794070803, 90.014831716854, 323.2582811742424};
double means[7] = {1556.347894360161, 14666688541.032192, 22191.42293204024, 132229.75691971832, 1237.7007229631788, 130.2039896387324, 345.8422193673843};
double radiuses[6] = {1.629308834720221, 0.770173517858912, 2.161304624626395, 0.621665364944055, 0.41148895729517126, 0.6843908858273741};
double weights[7] = {1.0, 1.0, 1.0, 1.0, 1.0, 1.0, 1.0};
