/* MODEL CREATED AUTOMATICALLY BY notebooks/203-MicroGenerateModel.py, timestamp: 2024-01-26 11:53:43 */

int n_clusters = 6;
double centers[6][67] = { {1.6941215122219972, 1.7040971989326432, 1.5647009635248332, 1.6947060200507444, 1.5507553557460534, 1.6379171801083556, 1.6382599262192634, 0.9614001446844304, 1.4103705332932606, 1.6265389884513093, 1.6358477564857141, 0.024393144892217798, -0.4823077799836795, 0.18477718799606827, 0.531502744105914, 0.6420344744203478, 0.7647951586432667, 0.4603900306018904, 0.17143813837383842, -0.07750081076834472, -0.022554037246950362, 0.3268268974317598, 0.00948318209745646, 0.38878203404120903, -0.27697844713683634, -0.1412158603118588, 0.06699772397528451, 0.112974339849599, -0.23876343894959354, -0.5568108249816027, 0.6669630306709512, 0.09532383184105965, 0.09679723827304908, -0.09219395723785613, 0.2275022047662987, 0.047172103020980474, -0.4251831636048732, 0.01695652887740293, -0.2060619288613525, -0.0012257330746565146, -0.41672996147897673, -0.05131869902492332, 0.44024709869779627, -0.10056143837553976, 0.21934240441196085, -0.2374898771036701, -0.13846550499052507, -0.09003324520194053, -0.15162506274442183, 0.21975746939224622, -0.3242603027471684, -0.021304391550453373, -0.026468754335284648, 0.6771819743876979, -0.029386220432218373, -0.5739153670450714, 0.011300959326456002, -0.42774922219837247, -0.12867244787404702, 0.09369790816967906, 0.2702291965740448, -0.23050239631420122, -0.37933910276234195, -0.9697428684553485, 0.5064272430934835, 0.5907121138218766, -0.056072531987622465}, {-0.570170352160761, -0.5523452113885557, -0.48036902311977736, -0.5569788352480102, -0.47718440645113575, -0.5111797023193426, -0.4971950048767348, -0.07853185924939686, -0.2930814380061112, -0.4829461874539445, -0.45896514315974896, -0.2742403878197906, 0.41756002508978896, 0.24601262180218933, 0.19547426057961168, 0.01657040362295465, -0.20870131712715223, 0.18503293419910355, -0.059167040754569605, 0.322110857591829, 0.3551260374790353, 0.320673369814984, 0.2972054098046871, 0.14766917242884836, 0.049792472348548174, 0.45626318337690663, 0.12662536836042218, -0.2569253400018297, 0.3423216691394554, 0.4620046463864916, 0.003804174003964731, 0.38527410696486525, 0.2595680792261937, 0.4858010298607717, 0.2976458913658, 0.4980580955155422, 0.5772841497202619, 0.28308874571915704, -0.06296882501581746, 0.46136178336171274, 0.552025827552557, 0.3140993452032562, 0.3118395650021106, 0.39551657318489686, 0.33588126266966406, 0.06954355809487346, 0.23823477462306214, 0.5176866694841329, 0.58657011835108, 0.19056208411426584, 0.503191312750583, 0.35946038226984267, 0.3319175164584206, 0.04452589770207045, 0.25235882590130276, 0.45444756187183166, 0.0889230800026126, 0.6488749401139776, 0.4415683834441862, 0.5405285560566836, 0.28111233404168806, 0.5102913909047988, 0.5383201577544682, 0.45546267390234607, -0.2796950152553852, 0.17405305933172696, 0.23894393088028038}, {-0.6753770102504846, -0.4201436230157329, -0.05952616712984376, -0.5215480798242986, 0.08072277269226442, -0.2168926288079134, -0.17998228138215874, -1.1170247096411354, -0.37444213112314834, -0.3611396352945194, -0.47752529816046246, -1.2065645956276136, 1.1419431347977218, -0.43043340061669605, -1.6189371216460953, -0.8213167722685726, -0.816573681765104, -0.7494199302914549, -0.21197705849430107, -0.3472612041234752, -0.7929516734838852, -0.9961134136830196, -0.811527352504388, -1.0695199270423392, -0.5101800881901848, -0.29480576898467603, -0.7061060306644809, -1.3872701163723133, 0.3062975603271278, 1.3202051424506922, -1.5196583856818964, -0.2314644550469406, -0.7601691258007957, -0.2998015527905296, -0.5785705584393512, -0.7554148630268216, 0.5176517818662405, -0.7038250323206071, -0.7636270664537493, -0.8506714872596207, -0.12754804071125633, -0.5935923163773225, -1.3468353538973894, -0.556804370398126, -1.1208486329324072, -0.44829877756614933, -0.6979962921236357, -0.7600177648351237, -0.7168452117076292, -1.3818359831423415, -0.1111694619713834, -0.620929679070783, -0.8257645855783959, -1.3524041805253335, -0.6225307014770307, 0.5931423700926017, -1.084757128084808, 0.557948486015618, -0.7266510419724569, -0.7609365002641049, -1.4910661779092333, -0.06288525097450173, -0.17237218938600718, 0.7056072076590998, -1.5420101664601678, -1.2455569412992815, -0.5641347863126019}, {0.28081429196596863, 0.17628566217535976, 0.028127152634685893, 0.18132235116890982, -0.0005389820694377183, 0.04176939344886229, 0.07865349535771145, -0.5786540303931578, -0.4052561742304146, 0.1493096115449543, 0.15566826414114393, 2.5463936601980657, -0.8097093227324108, -0.4442620746952884, -0.842077407992995, -0.6331834030258583, 1.1251445339297035, 0.10390711894261996, 2.053079644884183, -0.5511856649582193, -0.1367146939717014, -1.4074882397052269, -0.8289502953952396, -1.4402490435812816, 0.6133775898174639, -1.7022848710773197, 0.21414569747924425, 2.095730551934072, -1.0650755413914863, -0.5854552111142484, -1.6734779168986624, -2.350640778879044, 0.38398450579210314, 0.30778910428714235, 0.009001904953509166, 0.02983278656991158, -0.4350738472121935, -0.5938205414507268, 2.3184851022392654, 0.5126519073520129, -0.4100609631522119, -0.8807677964028269, -0.7320886515443863, -0.5068811706138575, -0.8471998733923841, 0.5022202342103452, 0.3604024915628546, 0.3105452196179769, -0.3006554169876907, -0.30560332750381486, -0.49253880772461284, -0.8171575498284869, -0.6363506238958648, -1.6968200183718916, -0.890935043191369, 0.12640588514581041, 1.4071892217362678, -1.9815721936391637, -0.19970060211404037, -0.6906509779931443, -0.14878516331312, -1.8191792094236863, -0.1308573238510036, 0.8419527698912455, 1.901896427269094, -1.4017846651125419, -0.7508527532377995}, {-0.525994680052545, -0.6636362197314157, -0.778761216586281, -0.6028559615263194, -0.8186675264759875, -0.757330023729633, -0.7498172073108982, -0.4823985800097749, -0.6692431478375745, -0.7439732361848054, -0.7323833868554372, -0.09466262548523986, -0.7696961671122485, -0.6819577473396674, -0.00027470964736178575, -0.5934739445314262, -0.6634283369276414, -0.5956300633814792, -0.7984429936652312, -0.49290542898561823, -0.648456005920383, -0.217404312800247, -0.43021070625768315, -0.05471947757703911, -0.5021870984685334, -0.3587886690270656, -0.5960110678257511, -0.14518156045422764, -0.7123059637128737, -0.7240734137402643, 0.6040340703181101, -0.08112286930066936, -0.717672565546567, -0.8486371481465603, -0.6068724653385154, -0.47924692529410784, -0.8831732526725402, -0.5242602638776382, -0.4383723959642626, -0.7612756268313321, -0.6717806240960706, -0.4543932501640984, -0.31276572683786263, -0.5207127953227241, -0.3998527634279916, -0.5304773283442019, -0.5857938092114554, -0.76390871590119, -0.5546634762987378, -0.2769703543288725, -0.662509397706845, -0.3391852955395509, -0.47752603818733197, 0.26058549886320653, -0.42665375636895037, -0.7138808032956535, -0.5292300763853922, -0.3867057975630803, -0.5582234503943012, -0.5782211295967988, -0.24842592198003507, -0.31100783428172757, -0.7362146692394801, -0.461876708249123, -0.08704107048524558, -0.1172997151356318, -0.4473314926669919}, {-0.07138439412166689, -0.06326132969346634, -0.04736865602730691, -0.05542418544690666, -0.08842810350112096, 0.010153061273261016, -0.0892765788117732, 1.1089843088585134, 0.22952116776510204, 0.05586413978720441, 0.10127677280263556, 0.6233877353433654, 0.7969319857735914, 1.3818218662354087, 1.036560860092874, 1.387965820681409, 0.797669684917498, 0.9342355136671543, 0.6206800039656529, 1.2505437847679952, 1.698560929655898, 1.2030556732342568, 1.680941794102125, 1.1639403090710192, 1.6252217436063356, 1.3917013284167976, 1.558763964833084, 0.9884017585742019, 1.470090795920268, 0.4348102382273142, 0.23599529270818626, 0.8349506461561355, 1.5044248131625695, 1.2225997368765138, 0.9997649100500937, 0.8709329007031329, 1.1574048831928097, 1.6441038414910119, 0.9654032964068568, 1.4398080641029936, 1.4522910503045285, 1.5860540640736267, 1.2657244524193891, 1.4268372456020457, 1.5672310741852264, 1.5759076379601427, 1.5919516876403177, 1.4968956617558007, 1.3218149405556612, 1.5683853405676187, 1.3933170122267668, 1.2228869524113448, 1.691486715421385, 0.679211405336477, 1.6364516057362375, 0.8838329034354527, 1.3718730304898605, 0.786865390427507, 1.4971459628167398, 1.3069245648565673, 1.3140722790729105, 1.1509114164715584, 1.4513314382128226, 0.5055471599543238, 0.549986761700736, 1.0973024971854795, 1.6070593103519017} };
double stds[67] = {6.730947226307435, 216412709.87320685, 16547.989012881182, 581.16448560426, 1158.745508219693, 94.28837840725508, 332.6135172898876, 17.440542999240876, 21.633182391480435, 55.39355373428201, 34.204088285201735, 21.415632184655493, 21.469162479538422, 9.088072687939807, 8.69510164911501, 22.335285757489533, 12.372648251693347, 10.077735007928153, 16.58904249266811, 11.049667411230523, 10.891744068427597, 7.872430527747781, 13.733133335442801, 9.790810613202556, 27.248084837937288, 7.785329399461065, 11.691455381010151, 19.334871120252004, 18.54811646582005, 18.472189177078793, 23.98426498880735, 9.781809958867852, 9.640655710757393, 7.010992729329661, 12.55853699444209, 12.69724099197697, 9.08880995082775, 14.080553548800905, 9.577717484293522, 7.664917556435419, 8.539480240847876, 21.609138067590532, 7.588668393659552, 9.420552024105318, 7.873780149417131, 28.02039521453325, 12.680293810585407, 8.1056985407369, 9.015039419328563, 9.90861215553927, 12.418544232356032, 10.79061051406545, 13.274082501039992, 11.21721177882926, 18.70068099929441, 10.65285401985988, 12.43446685818371, 9.003523586583066, 9.011608240767758, 8.760309493041218, 8.782493754049558, 10.153206517533548, 7.992576218433206, 15.044174122660849, 20.283400661667386, 9.134766477904579, 27.485318632052813};
double means[67] = {1556.0297512562815, 14683886808.829145, 26040.575692942617, 132257.50819665342, 1499.9938290011671, 145.62811635937538, 408.50446138955215, 64.65531663847946, 76.72762762178401, 102.62963955385977, 69.63475800601671, 97.43530157303974, 57.008973351582945, 47.75453364562242, 47.45120519019135, 65.5206713875329, 60.046823816210214, 46.303933637634394, 59.5472954933811, 49.891345401074425, 42.956457058583325, 49.4774663070231, 47.48799880618353, 58.71877494142134, 64.40842887862493, 49.755218353878796, 44.08591808880798, 86.56214985617234, 58.18690031133949, 53.36179484269712, 79.34839995243252, 60.77087760139763, 43.214137441844485, 41.374053855957094, 48.56179189876159, 50.80692130432371, 41.51419456116491, 47.99104819797933, 67.87001277078765, 38.871905650777634, 43.19645621549297, 53.899094133491054, 42.214191184990526, 43.114692994755686, 47.253609077433005, 63.35009522164574, 43.837949183852906, 38.745419330973455, 39.52749929892167, 47.1506473462061, 45.62325920721641, 51.10485915402562, 45.78838570230833, 66.05612098402212, 51.83760197350401, 48.335918629356875, 50.547508975584435, 58.259915348586546, 40.78314851165899, 43.01352094797565, 49.00972244320122, 64.53539841185747, 41.51534792467544, 60.984849175146124, 66.65564431119415, 48.84677716089231, 65.77159327250908};
double radiuses[6] = {8.906435118832398, 10.306338137731828, 9.76652577061821, 9.269377605820061, 6.409616737932669, 17.67587612002433};
double weights[6] = {1.0, 0.576663736961042, 0.9406178264808456, 0.41707387935520673, 0.5527002826490859, 0.9223722963764993};
